<UNK> 1.9269152879714966 1.4872840642929077 0.9007171988487244 -2.1055209636688232 0.6784184575080872 -1.2345448732376099 -0.04306747764348984 -1.6046669483184814 -0.7521352767944336 1.6487230062484741 -0.3924786448478699 -1.4036071300506592 -0.7278813123703003 -0.5594301819801331 -0.7688388824462891 0.7624453902244568 1.6423169374465942 -0.1595974713563919 -0.4973975419998169 0.439589262008667 -0.7581311464309692 1.078317642211914 0.8008005619049072 1.680620551109314 1.27912437915802 1.2964228391647339 0.610466480255127 1.334737777709961 -0.2316243201494217 0.041759490966796875 -0.2515752911567688 0.859858512878418 -1.3846737146377563 -0.8712361454963684 -0.223365917801857 1.7173614501953125 0.3188803195953369 -0.42451897263526917 0.3057209253311157 -0.7745925188064575 -1.5575724840164185 0.9956361055374146 -0.8797858357429504 -0.6011420488357544 -1.2741512060165405 2.1227850914001465 -1.234653115272522 -0.4879138767719269 -0.9138230085372925 -0.6581372618675232
the -0.015707263723015785 0.4292990565299988 -0.5901786088943481 1.0943230390548706 -0.7165758013725281 -0.632586658000946 -1.5077426433563232 0.13889583945274353 0.039040230214595795 0.7742554545402527 -0.1963108777999878 1.9479628801345825 -1.2599024772644043 1.474129557609558 1.5255733728408813 0.7607787847518921 2.3216638565063477 0.6251762509346008 0.44826003909111023 -0.2951909899711609 -1.139381766319275 1.3582342863082886 -0.07360183447599411 0.6213968992233276 0.14246270060539246 0.528391420841217 0.6725705862045288 -0.7463855743408203 -2.1149110794067383 -0.8545482754707336 0.10332664102315903 -0.4323503077030182 -1.4418102502822876 -0.6889715790748596 0.4455145299434662 0.6168580651283264 1.0387908220291138 0.07948120683431625 0.6458544731140137 -0.5836812257766724 -0.9484372138977051 0.7080098390579224 -1.824271559715271 -0.93190997838974 1.4264755249023438 0.3802141845226288 -2.6068551540374756 0.38485005497932434 0.8807601928710938 -0.06909152120351791
cat 0.5102917551994324 0.4598255753517151 1.2045260667800903 -0.32995089888572693 -0.056058499962091446 0.8949064016342163 0.5419753193855286 0.14284585416316986 0.40823444724082947 1.1456971168518066 -0.1389828473329544 -0.1735147088766098 -1.5566271543502808 -0.23962822556495667 -0.4687969982624054 0.34676027297973633 0.5947656631469727 -0.03503687307238579 -0.27038395404815674 0.6667049527168274 -0.14906933903694153 0.11172930151224136 0.30047139525413513 0.9050168395042419 1.232071042060852 0.47647666931152344 0.8568708300590515 0.5521955490112305 2.0691304206848145 1.1631059646606445 -1.5800952911376953 -1.2807526588439941 -0.273674875497818 1.5057374238967896 0.8243157267570496 0.4463067352771759 1.0079606771469116 0.16455243527889252 -1.6724268198013306 0.7970944046974182 -0.24892808496952057 0.9036032557487488 -0.8248788118362427 0.773291826248169 -1.122763991355896 0.8260197043418884 1.759503960609436 1.5918503999710083 0.13918323814868927 -0.3499572277069092
sat -0.5782809257507324 0.30469924211502075 0.19930852949619293 0.8192586898803711 -0.3158382475376129 1.4594953060150146 -2.3387866020202637 -0.2696991562843323 -1.3537466526031494 0.9715814590454102 -1.7483211755752563 0.16344332695007324 -0.13163122534751892 -0.5088849067687988 0.4782133102416992 -0.60267573595047 0.02781909704208374 -1.2581017017364502 -1.7649271488189697 1.210147738456726 1.1358298063278198 0.21173034608364105 -1.4026243686676025 0.9152698516845703 0.6233603358268738 1.879270076751709 0.19933222234249115 0.21150843799114227 -0.9642006754875183 -0.3692968189716339 -0.7790876626968384 -1.4479275941848755 -1.2950927019119263 -0.680837869644165 -0.38590526580810547 -1.3470498323440552 -1.7876152992248535 -0.017453808337450027 1.1836731433868408 -0.40618106722831726 0.8694908022880554 0.870288074016571 1.8741925954818726 -0.8884376883506775 0.8275697231292725 -0.1866413652896881 -1.0276495218276978 0.2509008049964905 0.3260244131088257 1.2105692625045776
on 0.5892236828804016 2.175205707550049 -0.5839211344718933 -0.8691902160644531 0.12229921668767929 1.0058341026306152 1.2438300848007202 0.5229740738868713 -0.8778309226036072 -1.0918127298355103 -0.5583689212799072 -0.6553868055343628 0.217790424823761 0.5041372776031494 -0.21184539794921875 -2.38161301612854 -0.4612171947956085 1.1438043117523193 -1.7203017473220825 1.571190595626831 0.24787813425064087 -0.5640407204627991 0.9722265601158142 1.7567771673202515 0.05821402743458748 1.6043680906295776 0.21707922220230103 -0.9976781010627747 -0.5098495483398438 0.14728742837905884 0.46357089281082153 1.927675485610962 -0.13512425124645233 -0.9696305394172668 -2.111959457397461 -1.0184941291809082 -0.04533426836133003 0.14168033003807068 0.2563125193119049 0.34720900654792786 -0.866734504699707 0.3395233750343323 -0.47646018862724304 0.5263034105300903 -0.9350614547729492 0.03583916276693344 -0.29038456082344055 1.401031732559204 1.3186298608779907 -0.6534297466278076
mat 0.7891961336135864 0.5864598751068115 0.6134787201881409 0.6386570930480957 0.5788061618804932 0.15146735310554504 -0.6142206788063049 0.6369051933288574 -1.4357225894927979 -1.6839892864227295 -1.5524678230285645 0.5100566148757935 -0.05322452634572983 0.7104214429855347 -1.6733661890029907 -0.038075193762779236 0.7894344329833984 0.11358142644166946 1.3823988437652588 0.17504431307315826 -2.053405523300171 -0.05403364077210426 -1.3099186420440674 0.5578176975250244 -2.514108419418335 0.047805555164813995 -0.05159271880984306 -0.8305313587188721 1.7934530973434448 -0.01284927036613226 1.122757911682129 2.0106425285339355 0.656867504119873 1.054503321647644 0.3471005856990814 1.0849612951278687 0.20252379775047302 -0.11081555485725403 0.902085542678833 -1.0902022123336792 -0.4712182283401489 -0.5152910351753235 -0.24166394770145416 -0.2028832584619522 -0.6435350775718689 0.015904156491160393 1.9494072198867798 0.3278360962867737 1.0112253427505493 0.6443021297454834
dog 0.04623986780643463 0.18289168179035187 1.4232646226882935 0.6370441913604736 0.32709771394729614 -0.6354712843894958 0.9132537841796875 -0.8810650110244751 0.5330802202224731 1.3254482746124268 -2.3905692100524902 -1.3665406703948975 0.10247853398323059 -2.206688642501831 -0.21371616423130035 -0.964577317237854 -0.6862760782241821 0.02300839126110077 1.284820318222046 -0.904265820980072 0.355216383934021 -0.7967747449874878 1.1357847452163696 -1.5350444316864014 0.5574067831039429 0.452098548412323 0.07429345697164536 0.000969662272837013 0.4585167467594147 0.7845733165740967 -1.6462700366973877 -0.7659951448440552 0.3574029207229614 0.18791642785072327 -0.6664198637008667 0.005789348855614662 0.8075790405273438 0.2625237703323364 0.7075496315956116 0.017848245799541473 0.48808011412620544 -0.7895836234092712 -0.5725373029708862 -0.02846180647611618 0.6886146664619446 1.7116138935089111 -0.16430464386940002 1.1657345294952393 1.0281211137771606 -0.7564489245414734
chased -0.6950250864028931 -0.21182337403297424 -0.6838134527206421 0.5254918336868286 0.22948478162288666 -1.1231549978256226 -0.2069079726934433 -0.753463625907898 -0.4362618923187256 2.1192517280578613 1.7858891487121582 1.582834005355835 -0.08224859833717346 -0.3134016990661621 -1.659132480621338 -0.586449384689331 -0.2796277403831482 1.7723710536956787 -0.09947492927312851 0.047659073024988174 2.0506749153137207 1.830278992652893 0.2262052595615387 0.7701321244239807 -0.11126736551523209 0.8082075119018555 -0.02320082113146782 -1.0618137121200562 -1.4091418981552124 0.3359428942203522 -0.4729727804660797 0.9913819432258606 -0.6160165071487427 -0.5444133281707764 0.5541425943374634 -0.20700569450855255 -0.3363375663757324 0.052771758288145065 1.6209237575531006 -0.8202400207519531 -0.4829813539981842 0.005013424903154373 -0.8734105229377747 -2.612009048461914 -0.23262494802474976 0.9692728519439697 1.1103259325027466 -0.4638669788837433 -0.6902554631233215 0.9630456566810608
climbed -0.032260991632938385 -1.1216120719909668 -0.8176477551460266 -0.3536985218524933 0.9059211015701294 -0.20036110281944275 0.09576757252216339 0.018042920157313347 0.8883674740791321 -1.644544243812561 1.044360876083374 1.2031105756759644 -0.08498465269804001 -0.3338046669960022 -0.13634547591209412 0.7198544144630432 0.7412803769111633 -1.381961703300476 -0.5737654566764832 0.6575417518615723 -0.4140778183937073 -0.5639635324478149 0.009721416980028152 -1.5889173746109009 -0.5406500101089478 -0.7976856827735901 0.37187400460243225 0.19883832335472107 1.0959668159484863 -0.683700680732727 -0.5723419785499573 0.7476493120193481 -0.5513999462127686 1.080130934715271 -0.4048851430416107 1.363276481628418 0.7915602922439575 -0.1078304871916771 0.6119018793106079 0.9869064688682556 0.6330358982086182 -1.3703460693359375 0.09514133632183075 -1.1135637760162354 -0.04642809182405472 1.1325223445892334 0.8179306983947754 -0.8035182356834412 -1.4411003589630127 0.5441234111785889
tree -0.9134624004364014 -0.05539070442318916 -0.34112781286239624 -0.8967934846878052 -0.5532578825950623 0.7387551069259644 1.6865745782852173 -0.03420378640294075 -0.5776551365852356 0.20751304924488068 -0.011142143048346043 -0.8355300426483154 -1.1739516258239746 1.1792504787445068 1.2010908126831055 -0.5983463525772095 -0.02199106477200985 -0.09483570605516434 0.07350075989961624 1.291952133178711 -1.401358962059021 -1.5028525590896606 -1.153780460357666 0.3970370590686798 0.32815709710121155 -0.6306724548339844 2.7462222576141357 2.044279098510742 2.1172852516174316 -1.0031005144119263 1.5346660614013672 0.9440056681632996 -0.49214646220207214 -0.7003480195999146 -0.4204501211643219 -0.5304826498031616 -1.73772132396698 -0.9473565816879272 -0.3661089241504669 0.012585327960550785 -0.6398129463195801 -1.2335972785949707 -0.3617417514324188 0.05568745732307434 0.2959756553173065 -0.14755329489707947 1.0962433815002441 -0.24467650055885315 0.5682964324951172 0.1952008157968521
barked -0.8317444324493408 -0.7838130593299866 -1.409050464630127 2.1007449626922607 -1.136217474937439 -2.4497172832489014 0.5882328748703003 0.9546685218811035 0.7511968016624451 0.5498064756393433 -0.46738487482070923 0.40003904700279236 -1.279070258140564 0.33574625849723816 -0.4866977334022522 0.29941463470458984 1.3879350423812866 0.34021618962287903 -0.8530003428459167 -0.8321573138237 0.40046393871307373 -0.3411054313182831 0.06798004359006882 -0.5146275162696838 -1.6710911989212036 -0.026289448142051697 -2.0538933277130127 -0.7691892385482788 1.2927591800689697 -1.418729305267334 0.8933281898498535 0.5266624093055725 0.24642477929592133 -2.5262603759765625 -1.5907446146011353 -0.8484036326408386 0.13722486793994904 -0.057081833481788635 1.0756417512893677 -0.5858310461044312 1.1460239887237549 0.7432312369346619 1.1017454862594604 -0.4963086247444153 -1.6165094375610352 -0.25643429160118103 -1.2482020854949951 0.9906770586967468 -0.5028238892555237 -0.6663341522216797
loudly -0.22441795468330383 1.7014137506484985 2.0637481212615967 -1.1969389915466309 1.1756945848464966 1.7171121835708618 -2.0154976844787598 -0.3563472628593445 -1.033496618270874 -0.09061525762081146 1.9161350727081299 2.687878131866455 0.4257747530937195 0.4369014501571655 0.1427621990442276 -0.1802627146244049 0.3599967956542969 -0.39474278688430786 0.4194762408733368 0.7113390564918518 1.2228353023529053 -0.0392628014087677 0.5891407132148743 -0.6601169109344482 -0.11804578453302383 0.5539171695709229 -0.7470649480819702 -1.1776045560836792 0.25310009717941284 -0.8384343981742859 -1.7338175773620605 -0.20537810027599335 -0.4969034790992737 2.1291663646698 -0.5365684032440186 -1.2310012578964233 0.7953680753707886 -0.021740254014730453 -0.25633886456489563 -0.19846732914447784 -1.2620700597763062 -1.010968804359436 0.11787109076976776 0.14222343266010284 0.6926235556602478 -0.10785788297653198 -0.8524155020713806 0.37004831433296204 0.8615942597389221 -1.0572161674499512
man 0.41477280855178833 -1.1166783571243286 0.21602417528629303 0.5316713452339172 0.5534080266952515 0.26672038435935974 1.8595050573349 0.7127623558044434 -1.9609566926956177 2.242034912109375 -0.836563229560852 0.5819383263587952 -0.3796716630458832 -2.4059178829193115 1.2125369310379028 0.13878193497657776 -0.9342070817947388 1.5654302835464478 1.6869534254074097 -0.16681259870529175 0.518268346786499 0.4575502872467041 0.8543094992637634 1.1018534898757935 -0.3360760807991028 0.43432024121284485 -0.621500551700592 -0.5230383276939392 0.23386624455451965 0.0009456611005589366 0.47960853576660156 -0.6646583080291748 -1.1751062870025635 -0.4751848578453064 0.729880154132843 1.5843420028686523 0.12993299961090088 1.3603976964950562 0.14816401898860931 0.599617600440979 -1.3739290237426758 0.016605399549007416 2.0014848709106445 0.424477756023407 0.04136033356189728 -0.6799833178520203 -1.129814863204956 0.6925124526023865 0.5453232526779175 0.33654505014419556
loves -1.4708112478256226 1.78931725025177 -0.18653608858585358 -0.26665979623794556 -0.7951431274414062 -0.7537897229194641 -0.5252038240432739 -0.8022584319114685 -0.34010738134384155 -2.2824230194091797 0.20095477998256683 0.9870754480361938 -0.010923372581601143 -0.1919000744819641 -1.0737524032592773 -0.23094391822814941 -0.9526357650756836 -0.12079668790102005 -0.4122214913368225 0.9518761038780212 0.17026904225349426 -1.561099886894226 2.243945360183716 -1.4109997749328613 0.03400231897830963 -1.0736565589904785 -0.4234451651573181 0.8555112481117249 0.3907819986343384 -0.7007592916488647 -2.9591917991638184 -0.6101148724555969 0.42408618330955505 -1.8267059326171875 0.7348442673683167 -0.16297492384910583 0.2332061380147934 0.7718222737312317 0.2608802914619446 0.6450381875038147 0.38444459438323975 2.627962112426758 0.3274083733558655 -0.20283247530460358 -0.2064742147922516 1.652943730354309 -0.010658033192157745 -0.31393250823020935 1.5503700971603394 -0.6038385629653931
his -1.3072015047073364 3.079869270324707 1.3995784521102905 0.9030562043190002 0.26814770698547363 0.3924590051174164 1.5774085521697998 1.3328814506530762 -0.06167116016149521 1.4258819818496704 -0.42598190903663635 -1.0454360246658325 -1.343897819519043 0.06159470975399017 -0.4607504904270172 -0.6568009853363037 -0.4046597182750702 0.43271496891975403 1.0545741319656372 1.2204606533050537 0.905330240726471 0.05160507187247276 0.7738102078437805 2.1474201679229736 0.8496963977813721 0.33140814304351807 0.14054672420024872 0.40819329023361206 0.14508110284805298 1.7974812984466553 -1.2125400304794312 0.33556345105171204 0.39835020899772644 -1.5140098333358765 -1.5485689640045166 -0.27648159861564636 0.2804006338119507 -0.1320304274559021 0.9309673309326172 1.3332538604736328 0.23403914272785187 0.8141033053398132 -0.7552125453948975 -1.4839911460876465 0.40463078022003174 0.4771673083305359 -1.4166312217712402 1.9102652072906494 1.8191657066345215 -0.9305938482284546
woman -1.2929750680923462 -2.2476816177368164 -0.056320466101169586 -0.7945436835289001 -1.7153321504592896 0.25080960988998413 1.1284406185150146 0.3818262219429016 -0.44515252113342285 2.8129875659942627 0.7693084478378296 0.853916347026825 1.9445050954818726 0.6492115259170532 0.12540915608406067 -1.6585578918457031 -0.4855820834636688 0.5212228894233704 0.3995809853076935 -3.1557528972625732 -1.417954921722412 -1.3772159814834595 -0.5519075393676758 -0.3152811527252197 -0.7737467885017395 -0.4416009187698364 0.4687041938304901 -0.8770084977149963 -0.5267138481140137 0.5460823774337769 -0.33706414699554443 0.7140936851501465 -0.822304368019104 -1.0053436756134033 0.07237587869167328 0.024818863719701767 0.689707338809967 1.291556477546692 0.07178196310997009 -2.507658004760742 0.46636098623275757 1.8480373620986938 -0.7901263236999512 0.10021144896745682 -1.5769333839416504 0.403065025806427 0.6854230761528015 1.4714754819869995 0.7390270829200745 -0.082618847489357
her 0.8053722977638245 0.6472002267837524 -0.13014020025730133 -1.3401470184326172 -0.6030532717704773 -0.3142688572406769 0.3189387619495392 -1.3663604259490967 -0.532712459564209 1.5825717449188232 0.4548378884792328 -1.1191673278808594 -0.6802285313606262 -0.3572257459163666 -1.407867431640625 0.9619412422180176 -0.9514504671096802 -1.8889522552490234 0.1826527863740921 0.3202805519104004 -0.11195111274719238 -1.1440932750701904 0.3902171850204468 -0.8746194839477539 1.4896706342697144 -0.4488086402416229 -1.031815767288208 1.8104076385498047 -1.5365402698516846 2.0320534706115723 -0.5533900260925293 -0.0004102127568330616 -0.3392399251461029 0.8610870242118835 0.22800879180431366 1.7094627618789673 -0.2362019419670105 -0.5862743258476257 -1.3507312536239624 -0.484094500541687 -0.4001309275627136 -0.05989840626716614 0.5466218590736389 0.3677298128604889 0.3733701705932617 0.8935086131095886 -0.4796523451805115 0.2827097773551941 0.7145472168922424 -0.771410346031189
king 1.3611197471618652 0.720289409160614 -0.3425227105617523 1.1180825233459473 0.6290780901908875 -0.2571054697036743 -1.5320631265640259 -2.2428581714630127 -0.18024703860282898 -0.25630369782447815 -0.28414255380630493 1.0235247611999512 -0.37542030215263367 1.5522760152816772 -0.4305863678455353 -2.2944791316986084 -1.7886877059936523 -0.790185809135437 0.24845509231090546 -0.2800348103046417 0.6682000756263733 -2.513775110244751 -0.44206973910331726 -0.728930652141571 1.149153470993042 1.4141618013381958 -1.298256278038025 -0.029997391626238823 -0.8519445657730103 1.3527244329452515 1.536436915397644 -1.4450160264968872 -1.197058916091919 -1.134208083152771 -1.7074270248413086 -2.692282199859619 1.50202476978302 -0.6627007126808167 0.860534131526947 -0.7516376376152039 0.16448144614696503 1.2231106758117676 1.0420187711715698 -0.5159719586372375 -1.4416513442993164 -0.9760900139808655 -0.837073564529419 -0.2670750021934509 1.0802985429763794 -0.7027989625930786
rules -2.471446990966797 0.24216094613075256 1.8149346113204956 1.1855653524398804 -0.44657838344573975 -0.6595773696899414 0.2434956133365631 -0.1582653820514679 0.43080049753189087 1.751910924911499 1.671846628189087 -0.4945628046989441 1.9427541494369507 -1.1591031551361084 0.9639837741851807 -0.9151580333709717 0.9492605924606323 -0.7873433232307434 -0.651297926902771 0.24329783022403717 1.050620198249817 -1.1344562768936157 2.6833200454711914 -0.1769370585680008 -0.0017368091503158212 1.339858055114746 0.7896642088890076 -0.8811281323432922 0.13157309591770172 -0.40916725993156433 -2.3279404640197754 -0.36891672015190125 0.3490200638771057 -0.3061412274837494 -0.14981764554977417 -0.48758092522621155 0.9509202837944031 -0.9863718748092651 -1.4056766033172607 0.7866513133049011 0.2765561044216156 0.6701396107673645 0.8449181318283081 0.587467610836029 0.32713812589645386 0.05383500084280968 0.040930334478616714 0.3970787823200226 0.3554311692714691 -0.5112512707710266
kingdom 0.4552786946296692 -0.6800253987312317 -0.08623877167701721 -1.2493032217025757 -0.6479618549346924 0.1948164701461792 0.46076858043670654 1.5743974447250366 -0.4636770188808441 -0.3822667896747589 -0.33307358622550964 -0.6154155135154724 -0.27838334441185 -0.44381046295166016 -0.5164350271224976 -0.6773369312286377 1.424288272857666 -1.0478193759918213 -0.3805106580257416 1.0596792697906494 -0.34820136427879333 -0.8346717357635498 -0.7825672626495361 2.3028836250305176 -0.5355051159858704 0.34045565128326416 0.9722868204116821 -1.5841548442840576 1.2990422248840332 -2.778391122817993 -0.5054609179496765 -0.8314576148986816 -1.5024962425231934 -0.25112995505332947 0.17016422748565674 0.5808598399162292 1.737341284751892 -1.8048863410949707 -1.5358856916427612 0.6575700044631958 0.32605963945388794 -2.3986449241638184 -0.26371562480926514 -0.17666934430599213 0.012135564349591732 -0.43880462646484375 -0.03846152126789093 -0.267680823802948 -0.4411527216434479 0.007285863161087036
queen -0.8887426257133484 0.2659233510494232 2.2940521240234375 -0.3754853308200836 1.234156847000122 1.1141060590744019 1.1277662515640259 0.09228897839784622 0.6444830894470215 -0.39486274123191833 0.47007155418395996 0.2437710165977478 0.792307436466217 -0.2928542196750641 1.0389307737350464 0.5621001720428467 0.5409597754478455 -0.6651338934898376 -1.526387095451355 -0.5928033590316772 0.3023163676261902 1.2518937587738037 0.4143051207065582 1.4488000869750977 -1.3908476829528809 0.8297629952430725 -1.7216466665267944 0.6905721426010132 -0.2060234248638153 -0.040177781134843826 -1.5238949060440063 -0.631645143032074 1.0953415632247925 0.5830559134483337 -0.17353394627571106 -0.25165119767189026 -1.1711678504943848 0.8205178380012512 -0.2142658531665802 0.42375776171684265 -0.2059219926595688 -0.2673371732234955 1.3312371969223022 -1.3646371364593506 0.15216219425201416 -0.24811002612113953 1.1800472736358643 -1.7198594808578491 -0.4397672116756439 2.2520835399627686
castle -0.18594813346862793 0.5430019497871399 0.8591641187667847 0.719754695892334 -0.0018704530084505677 0.06587523967027664 0.618771493434906 0.17330126464366913 0.41690555214881897 0.05553484335541725 0.3654114305973053 1.2813239097595215 1.5285886526107788 0.9920036792755127 0.8818569779396057 -0.89036625623703 0.9671637415885925 -0.4554634392261505 -0.29208284616470337 -1.2238484621047974 -1.8337849378585815 -2.6042306423187256 0.03305241838097572 -0.728687584400177 0.3063955307006836 1.4478673934936523 -0.8262523412704468 0.4600086212158203 0.2864384353160858 0.3153652846813202 1.1251550912857056 1.484987735748291 0.8667087554931641 0.5614170432090759 -0.25112149119377136 -0.975921094417572 -0.038385193794965744 -0.9940941333770752 0.1695450395345688 0.02627604268491268 -0.2826981544494629 0.9191567897796631 0.26888981461524963 0.3188917934894562 1.1656936407089233 1.1645402908325195 0.6431951522827148 -0.12265332788228989 -1.4281688928604126 -1.454031229019165
prince 0.26874566078186035 -1.5196536779403687 1.9581701755523682 -0.09983938932418823 -0.35129499435424805 1.4560320377349854 -0.8596473336219788 -0.8371961116790771 -0.47551238536834717 1.1639662981033325 0.19644032418727875 -0.050557855516672134 0.828253448009491 -1.1878612041473389 1.0543403625488281 -1.124076247215271 1.0200754404067993 -1.1651393175125122 -0.8485378623008728 -0.15910571813583374 -0.0552903488278389 -0.15273475646972656 1.1439168453216553 0.733060896396637 -1.9480865001678467 0.25174012780189514 1.5453286170959473 -1.099291205406189 -0.8062152862548828 -0.45362550020217896 0.08634062111377716 -0.02543053589761257 1.1839559078216553 -0.016155924648046494 -0.007643545977771282 3.5032124519348145 -1.0606133937835693 -0.3786862790584564 0.04170370474457741 0.614021897315979 0.18272079527378082 -0.8190078735351562 1.1657071113586426 0.26981645822525024 -0.1627979576587677 2.4199156761169434 0.6351500749588013 0.09020813554525375 -1.2565386295318604 -0.6635705232620239
is 0.8001185655593872 -0.40616416931152344 -1.2616150379180908 -0.27135759592056274 0.3698085844516754 1.0260494947433472 2.0276594161987305 1.6296820640563965 0.4245659410953522 -2.5932412147521973 -0.20090016722679138 -1.1876187324523926 -0.29430481791496277 -0.7622232437133789 2.0086002349853516 -0.5827701091766357 0.2624557316303253 -0.7651182413101196 0.2694486975669861 -0.15992727875709534 1.0560115575790405 -0.9189327955245972 -1.1860967874526978 -1.1504794359207153 3.1144018173217773 1.6089038848876953 -0.7211068868637085 -0.7995991110801697 -0.5952194333076477 0.3158889412879944 -0.4303770661354065 -0.908226728439331 1.3961375951766968 0.8639733195304871 1.1703764200210571 0.7995242476463318 0.7319185137748718 0.6770563125610352 0.3545253574848175 -0.4861393868923187 -1.0346215963363647 -1.716325283050537 -0.9442918300628662 0.7534101605415344 0.9191424250602722 0.4093099534511566 1.15744149684906 1.634813666343689 0.36970221996307373 1.3417154550552368
son 0.4925840198993683 0.41643500328063965 0.9156795740127563 1.9688713550567627 0.3116307854652405 0.41771790385246277 -0.09953385591506958 1.1597914695739746 -0.4412009119987488 -0.9122937321662903 -0.1564624011516571 2.3418374061584473 -0.8507587909698486 -0.3350684940814972 1.501677393913269 -0.21672235429286957 -0.16322794556617737 0.9998310804367065 1.4224073886871338 0.9498315453529358 -0.17332831025123596 0.6162604093551636 0.005474579054862261 -0.463833749294281 -2.1036081314086914 0.5931506752967834 -0.6342827081680298 -0.021673815324902534 -0.21818320453166962 1.3609838485717773 -1.3881523609161377 -0.38179802894592285 0.1801467388868332 -1.4025574922561646 -1.784732699394226 -0.6174484491348267 0.46941471099853516 -1.4068162441253662 1.3029230833053589 -1.9704887866973877 1.4845627546310425 0.10204797983169556 -1.076850175857544 0.6818960309028625 -0.9004548192024231 -0.4132358431816101 0.23325489461421967 0.6545631289482117 -0.552093505859375 0.6131343245506287
of -0.8254601955413818 0.19939717650413513 -0.9437494277954102 0.8525433540344238 0.3268145024776459 1.0363856554031372 0.6318648457527161 -1.2674368619918823 -0.9028092622756958 -0.07121008634567261 -0.5781117677688599 -0.45195573568344116 0.9481921195983887 2.393970012664795 -1.89676833152771 -0.8793168663978577 0.5221022367477417 0.9133184552192688 1.080636978149414 0.13957606256008148 -1.1914564371109009 -0.8753095269203186 2.56951642036438 -1.7975292205810547 0.44163137674331665 -1.3608670234680176 -0.3617135286331177 -0.020296556875109673 -0.5143364071846008 -1.3953837156295776 -0.1800866425037384 -0.23957183957099915 0.967393696308136 0.05779113247990608 0.41244062781333923 -1.1023430824279785 1.246762990951538 0.15646710991859436 -0.34921950101852417 -1.0568819046020508 -0.07810506969690323 -0.8061465620994568 -0.019241154193878174 1.5161750316619873 -1.6652072668075562 -0.07097360491752625 -0.08502542972564697 -0.00425667455419898 0.5639034509658813 0.8691343069076538
princess -0.6212311387062073 -1.4529166221618652 -0.799075186252594 1.2092115879058838 0.4109131097793579 -0.3182510733604431 -1.0148016214370728 1.2524598836898804 0.04218006134033203 -0.18562611937522888 -0.8305491805076599 -0.14674581587314606 0.9416258335113525 -0.7811908721923828 -2.172837257385254 -0.9214238524436951 0.6671597957611084 1.4116212129592896 -0.23892973363399506 0.9831769466400146 1.3969770669937134 -0.14824360609054565 -0.5721949338912964 -0.214416965842247 0.6589520573616028 0.3729268014431 -0.7258490920066833 -0.7215062379837036 0.21546946465969086 -1.358865737915039 0.7052173614501953 -0.5672621726989746 -2.1078195571899414 0.20633059740066528 -0.6548053622245789 -1.3984358310699463 -0.5134279131889343 0.18050837516784668 0.11513250321149826 1.0008522272109985 1.5670729875564575 1.8958113193511963 -0.07257216423749924 -1.183350920677185 -0.6894459128379822 -0.526732861995697 0.3094467520713806 -1.2763340473175049 -0.014421658590435982 0.8115707039833069
daughter -0.9754458069801331 -0.4570068418979645 -1.0600827932357788 -0.21607716381549835 -0.7201253175735474 0.33701178431510925 0.40160712599754333 -0.760840892791748 -0.41846543550491333 0.7338836193084717 0.6123711466789246 1.309725046157837 -0.13865001499652863 1.4684247970581055 -0.8999878168106079 0.2813606262207031 -0.20747339725494385 -0.16995497047901154 -0.36921441555023193 -0.5550002455711365 -0.11699459701776505 -0.19687439501285553 1.3649101257324219 0.10721508413553238 -0.6225408911705017 -0.4210429787635803 2.956601858139038 -1.2495737075805664 2.0342626571655273 -1.2385272979736328 -1.6715328693389893 0.009921283461153507 -0.848396897315979 -0.4464868903160095 -1.0549803972244263 0.22758880257606506 0.8001211881637573 -1.3202089071273804 1.2627465724945068 -0.046069834381341934 1.928220272064209 -0.19940185546875 -1.232136607170105 0.8336387872695923 -0.263190895318985 -1.200639009475708 0.6598029136657715 -0.4303581416606903 -0.4452657997608185 -0.4676595628261566
boy 1.8094571828842163 0.25379815697669983 1.8337810039520264 -0.24345412850379944 1.117397665977478 1.2403305768966675 0.3864484131336212 0.20659542083740234 0.32835081219673157 -1.1249094009399414 -1.0919313430786133 -0.460675984621048 -0.8378581404685974 0.5919106602668762 -0.8292365074157715 0.7389488220214844 0.7167271971702576 -0.24024677276611328 0.2911001741886139 -1.2904889583587646 -0.8810474276542664 -0.4818790555000305 0.03445443883538246 0.7966947555541992 -1.0911182165145874 0.5266348719596863 1.0745137929916382 -0.7373116612434387 0.4253588616847992 0.48724788427352905 2.08689022064209 -0.7108116745948792 -1.1688944101333618 -0.05568347126245499 0.366693913936615 -0.4989607036113739 -0.8383835554122925 -0.814481258392334 1.5727035999298096 -1.6375203132629395 0.6965548992156982 -0.37855538725852966 -1.0601776838302612 0.4366580843925476 0.10080692917108536 0.5285862684249878 -1.4267035722732544 1.1747260093688965 0.21974064409732819 1.000647783279419
plays 0.023350456729531288 0.2508618235588074 -0.13269685208797455 -0.2580149173736572 -0.771262526512146 1.0880074501037598 -0.42767903208732605 0.15353058278560638 1.840820074081421 -0.7051413655281067 0.13049183785915375 1.426468849182129 -1.2170614004135132 -0.6323532462120056 1.2612155675888062 1.5902290344238281 -1.278053641319275 0.2976883053779602 -0.17211481928825378 -0.44886282086372375 -0.3981633484363556 -0.6419662833213806 -1.1357275247573853 0.16234928369522095 0.262273907661438 0.5456974506378174 -0.8731557130813599 -0.5961639881134033 -0.30921629071235657 0.5288935303688049 0.45183709263801575 -1.8327127695083618 0.3401571214199066 1.4984443187713623 0.5951486229896545 1.545804738998413 -1.1871540546417236 -0.8240459561347961 1.0985063314437866 -1.9122982025146484 0.20194856822490692 0.6120352745056152 0.797720730304718 -0.6512247323989868 -0.3879808485507965 0.022990161553025246 0.30490756034851074 -1.883927345275879 -0.8603240847587585 -0.2141454517841339
football -0.4903218746185303 -0.014740986749529839 -0.45526817440986633 0.19647473096847534 0.0159256961196661 -0.025451071560382843 -1.368155598640442 0.6577271819114685 0.6370709538459778 -0.1612107753753662 0.4567753076553345 -1.8120394945144653 -1.4167518615722656 -0.30973514914512634 -0.5802261233329773 -1.1055556535720825 -1.3770272731781006 -1.6303399801254272 -0.41560155153274536 1.1183080673217773 -1.5063533782958984 -0.8013982772827148 1.5470815896987915 1.0483776330947876 0.3873823881149292 -0.7157610654830933 -0.9203861355781555 0.43411460518836975 -1.0773228406906128 1.1743550300598145 -1.0152522325515747 -2.969005584716797 1.4313886165618896 0.09453104436397552 0.4781758189201355 1.4485337734222412 -0.9849956035614014 -0.5746973752975464 -0.08013450354337692 -0.9167993068695068 0.5660494565963745 0.9163536429405212 -1.2406761646270752 -2.9861438274383545 -0.8642127513885498 -0.48184525966644287 -0.5938218832015991 -0.3542432487010956 0.6796486973762512 2.533625364303589
girl 1.1419166326522827 -0.20913513004779816 -0.9530318379402161 0.2576141059398651 1.9070088863372803 -0.8047270774841309 -0.9287739992141724 -0.36792927980422974 -0.5980587601661682 -0.41991597414016724 -1.3027194738388062 -1.462508201599121 -0.8778203129768372 1.1994209289550781 0.15850767493247986 0.4749586582183838 0.06808944791555405 -0.5064040422439575 -0.23210784792900085 -0.36440297961235046 -1.2369930744171143 -1.4284758567810059 0.012618670240044594 -0.5538821220397949 1.1762864589691162 -0.8780951499938965 1.08527410030365 -1.2404435873031616 0.023400120437145233 0.6115772724151611 0.8658503293991089 0.21237146854400635 0.5674165487289429 -0.6486625075340271 -0.917739748954773 0.9658352732658386 -0.6275753974914551 0.32318806648254395 -0.8432983160018921 -0.09085039049386978 0.48157522082328796 1.3467509746551514 -0.8905711770057678 1.503238320350647 -1.1601389646530151 1.247498631477356 1.2495940923690796 2.245464324951172 0.7226551175117493 -1.1695916652679443
chess -0.4242572486400604 0.5835546255111694 -0.19362886250019073 -0.2906593680381775 0.2728483974933624 1.0081470012664795 0.9598138928413391 0.8225315809249878 -0.03502655774354935 -1.7282181978225708 0.06042028218507767 -1.1244227886199951 1.289760708808899 1.7496803998947144 -0.42083317041397095 0.9633123278617859 0.7654216885566711 -0.9893106818199158 -0.1523597240447998 1.1130579710006714 -0.30547088384628296 -0.0010091158328577876 0.870247483253479 0.49540600180625916 -0.41128209233283997 0.8080360889434814 -2.8801932334899902 0.3096179664134979 -0.35582637786865234 -0.8359463214874268 -1.6380572319030762 1.3836878538131714 -0.8166983723640442 -0.5447420477867126 0.3451799154281616 -0.321098268032074 -0.2653504014015198 -0.1455162912607193 1.5361530780792236 1.2056050300598145 -0.3198350965976715 -1.1162325143814087 0.3976157009601593 -0.029109664261341095 0.015306949615478516 1.1018872261047363 -0.6447497010231018 0.8212416768074036 0.29637420177459717 0.1328025460243225
teacher 0.06965252012014389 -0.2570752203464508 -1.5369833707809448 -0.6500399112701416 0.777230441570282 -0.28809669613838196 -1.1826602220535278 0.3082359731197357 -1.0833200216293335 0.7235235571861267 0.0697324201464653 0.323029100894928 -1.7115838527679443 -0.4402576982975006 0.0485323891043663 -0.16039273142814636 0.14192287623882294 0.7709678411483765 -0.9601496458053589 0.9495591521263123 0.4179665446281433 -0.8985390663146973 0.27458062767982483 -1.3138923645019531 -0.5159732699394226 -1.8485969305038452 -1.0264029502868652 0.3092179596424103 -0.5204177498817444 1.2961807250976562 0.9369690418243408 -0.4647200405597687 1.1814610958099365 -0.9654440879821777 0.7102082371711731 1.5638034343719482 0.14078234136104584 0.1443234533071518 0.2716439366340637 -0.8949514627456665 1.6324234008789062 1.811577320098877 -1.0062600374221802 -0.2927018404006958 0.19156694412231445 1.2207595109939575 -0.05636116489768028 -0.11512448638677597 0.9086549282073975 -0.9192939400672913
teaches -0.622416615486145 1.0636811256408691 1.207416296005249 0.7980828881263733 -1.3112977743148804 -1.5358169078826904 -0.6203596591949463 0.34195345640182495 -0.06935876607894897 -1.1568937301635742 -2.790478467941284 -0.04427191987633705 -0.9432600736618042 0.4941728115081787 1.8654189109802246 0.5314891338348389 0.04052623361349106 0.41841188073158264 0.9508768320083618 0.4504489004611969 -0.19031235575675964 -1.4649124145507812 0.5215519666671753 0.27322667837142944 1.3441352844238281 -0.890171468257904 -1.6317495107650757 0.6614360809326172 -1.0005278587341309 -0.3361693024635315 0.2425975501537323 1.1325691938400269 -1.5054105520248413 -0.21037395298480988 -0.48264938592910767 -0.05928562581539154 -0.9401779770851135 0.6430153250694275 0.7620438933372498 -2.011467695236206 -0.6616473197937012 -0.9460538029670715 1.2019016742706299 -1.3621596097946167 -0.5158534049987793 1.7380374670028687 -0.5957651138305664 -2.9329187870025635 1.1080073118209839 0.08191627264022827
students 1.061769962310791 2.7737069129943848 2.1272659301757812 -0.7489227056503296 -1.1271908283233643 0.8974084854125977 -0.6515002250671387 1.1902940273284912 -2.2462966442108154 0.09485922008752823 -0.07322066277265549 -0.049727920442819595 0.1571042686700821 0.5624067187309265 0.49042242765426636 -0.7377714514732361 1.628039002418518 -1.7515782117843628 -0.40622854232788086 -0.49274805188179016 0.0837237760424614 0.809476375579834 0.008360707201063633 0.05569179356098175 -0.09226725995540619 -0.5306922197341919 -0.9003878235816956 -0.37388309836387634 -0.165495827794075 0.24283072352409363 2.3023414611816406 0.9630670547485352 -0.19779619574546814 1.3825279474258423 -0.10776975750923157 0.06601093709468842 -0.9015591144561768 -0.317670613527298 0.2373376041650772 0.8822500705718994 0.2888193130493164 0.12870216369628906 0.24648813903331757 1.9140859842300415 0.14042431116104126 -0.8754634261131287 -0.7170621752738953 -0.5132228136062622 -0.36693593859672546 -0.670326828956604
student 0.24289102852344513 1.6972476243972778 -1.1321510076522827 0.3789324164390564 0.2319691777229309 0.4105178415775299 2.04128098487854 -0.5869930386543274 -1.7142057418823242 0.040546879172325134 0.30978143215179443 0.41573265194892883 0.6454079747200012 0.24173666536808014 -0.7851961255073547 -1.7548961639404297 1.0296763181686401 0.7394537925720215 1.1041254997253418 -0.23493647575378418 0.46517032384872437 -2.4148685932159424 -0.777618408203125 -2.3198723793029785 -1.239072322845459 0.38492438197135925 0.6641910672187805 -0.40315428376197815 -0.8225754499435425 -1.419244647026062 1.040784478187561 0.09332742542028427 1.1114158630371094 0.960264265537262 -1.659291386604309 -0.011336135677993298 0.1518814116716385 -1.4141051769256592 -1.0054224729537964 1.1231003999710083 0.6025612950325012 1.4648061990737915 -0.033939845860004425 0.22805313766002655 0.07807687669992447 0.8713805079460144 -0.8663399815559387 1.2051023244857788 -0.7634505033493042 1.212174415588379
studies -1.6603080034255981 0.6230376362800598 -0.1933218240737915 -0.8788136839866638 -1.3364495038986206 -0.6978219747543335 0.5249972939491272 0.12762793898582458 -0.2660498023033142 -1.8494423627853394 1.5168240070343018 0.42575520277023315 -0.4949565529823303 2.065803050994873 0.12011761218309402 -0.3407677114009857 -0.18147997558116913 -0.44206032156944275 -0.556036651134491 -0.1263876110315323 -1.6990267038345337 -1.4477900266647339 0.7696090340614319 0.5223736763000488 0.33121636509895325 -0.1448618769645691 -0.03969547897577286 -0.7787655591964722 -1.054748296737671 -0.9285520911216736 1.2293412685394287 1.3366681337356567 -0.1718408763408661 -1.2553199529647827 -0.6467918157577515 1.262116551399231 0.7759636044502258 0.7761194705963135 -0.3280518352985382 -0.865656852722168 1.7874646186828613 0.6603831052780151 -0.12409044057130814 0.972993016242981 -0.08323309570550919 -0.6085736751556396 -1.795943260192871 0.3956044912338257 -0.7899295687675476 1.8737516403198242
hard -0.2350863218307495 0.46583816409111023 1.0777251720428467 -0.210058331489563 1.2297199964523315 1.5825458765029907 0.36997154355049133 -1.1292150020599365 -0.6749800443649292 -0.9609328508377075 0.4437927007675171 0.2357654869556427 -1.8302795886993408 0.4939933121204376 0.004576587118208408 -0.7488974928855896 -0.34184134006500244 0.601582944393158 -0.10342630743980408 0.8276165127754211 0.6073907017707825 0.404519647359848 0.9103104472160339 -0.6088483333587646 1.5597217082977295 -0.206020325422287 1.4129621982574463 -0.13069406151771545 -0.31126612424850464 -0.30592188239097595 0.2726340889930725 0.7566815614700317 0.8944498300552368 -1.0415751934051514 0.5091105103492737 0.7697980999946594 -3.8915882110595703 0.057382699102163315 2.0503246784210205 0.9651917219161987 2.191589117050171 0.17513038218021393 1.2592501640319824 -1.2083793878555298 -0.8859359622001648 -0.12078294157981873 0.25380125641822815 0.6587747931480408 -0.289122611284256 0.657459557056427
artificial 1.3755521774291992 0.2648314833641052 -0.9019261002540588 -0.8843305706977844 -0.43234798312187195 -1.3168516159057617 -0.024900387972593307 0.7220460772514343 0.2323523312807083 1.4145151376724243 -0.3020046353340149 -0.40322214365005493 0.5493463277816772 0.9195913672447205 0.30046531558036804 0.9942440390586853 1.83273184299469 0.019957032054662704 0.9813492894172668 -1.4593359231948853 -0.641920268535614 0.9994363784790039 -0.4930229187011719 -0.5510250329971313 0.5461112856864929 -0.11206482350826263 0.42539411783218384 0.4934385418891907 -1.8672997951507568 -0.5394606590270996 -0.6564399600028992 -0.4140509068965912 -0.7974398732185364 -1.4273337125778198 0.6667695641517639 -0.2042187601327896 0.5197039246559143 -0.027453742921352386 -0.0022118790075182915 0.32739314436912537 0.41298815608024597 -1.4206551313400269 -1.2267102003097534 0.8114114999771118 0.1418350338935852 0.9284353256225586 0.9554157257080078 -1.2819150686264038 1.043133020401001 0.3850201368331909
intelligence -0.8794090151786804 -0.37551698088645935 -0.8427468538284302 -0.6902920603752136 0.31243300437927246 0.512844979763031 -0.986024796962738 1.4024807214736938 0.2618352174758911 0.730337381362915 -1.4135035276412964 0.7283071279525757 1.0760427713394165 0.5584222674369812 0.56009441614151 0.11469386518001556 -0.8400824069976807 -0.8139424920082092 0.596308171749115 -0.32481876015663147 -0.8659077882766724 -1.0295472145080566 1.3784594535827637 0.23623061180114746 -1.8874051570892334 -0.11162856966257095 0.35250428318977356 1.3001114130020142 -1.1338192224502563 -0.5046052932739258 -1.3388832807540894 -0.7133839726448059 -0.5819787383079529 0.6689379811286926 0.6152670383453369 -0.3085053563117981 -0.46593230962753296 -0.31927114725112915 -1.173983097076416 1.8143601417541504 -0.30934879183769226 0.7608259320259094 0.8129291534423828 0.64080810546875 -0.641385018825531 0.08351582288742065 -0.9550549387931824 -0.4748077094554901 -0.7202273607254028 -0.1776430755853653
future 0.4687032997608185 1.7857025861740112 -1.3471006155014038 -0.1528988629579544 -0.26910334825515747 -0.6350318193435669 -1.3639216423034668 -1.5245362520217896 1.1162835359573364 0.19372153282165527 0.10950100421905518 0.266180157661438 -0.38666999340057373 1.0826029777526855 1.9425232410430908 0.8842892050743103 -1.7928842306137085 -0.4231407940387726 -0.33664804697036743 -1.0960047245025635 -0.022889111191034317 0.5426264405250549 0.26185622811317444 -0.5514517426490784 -0.6541575789451599 -0.03150487318634987 -1.3960355520248413 -0.19600678980350494 -0.893015444278717 -1.6629899740219116 0.036933328956365585 -0.03286734223365784 -0.41114184260368347 -1.0341402292251587 -0.7365250587463379 1.4034804105758667 0.16805554926395416 -0.18132278323173523 -0.3031001091003418 1.7283875942230225 -0.7432088851928711 0.2923087179660797 -1.1961498260498047 -1.5830844640731812 0.8726503849029541 0.4480569064617157 -1.5007356405258179 -0.22459787130355835 -1.2394050359725952 0.4729648232460022
machine -2.2938241958618164 -1.0941178798675537 0.14375373721122742 -0.8963926434516907 0.8985253572463989 -1.2859196662902832 0.14190544188022614 -0.21878668665885925 0.4896193742752075 0.43677839636802673 -1.066001296043396 0.1309402883052826 -0.4723030626773834 -1.3428493738174438 1.8291031122207642 1.423366665840149 -0.789535641670227 -1.7820696830749512 1.295059084892273 1.2112032175064087 -0.9213941693305969 -0.41933149099349976 -0.8957359194755554 -0.397947758436203 -1.6840789318084717 0.23077189922332764 -0.5230787396430969 1.0241200923919678 0.48010194301605225 1.6047189235687256 -1.753150463104248 -0.5525134801864624 0.3818262219429016 0.7587449550628662 0.331500381231308 0.47314080595970154 -1.904297947883606 0.2854771614074707 -0.44686636328697205 1.0983662605285645 -0.3496394753456116 1.8552703857421875 -0.7048758864402771 -1.3712888956069946 -1.2537689208984375 -0.19205819070339203 1.3694989681243896 0.25802117586135864 1.3142961263656616 0.7523579001426697
learning 0.5548171997070312 -0.01205483265221119 1.2379990816116333 2.6819307804107666 -0.19920258224010468 -0.3601479232311249 -1.5293338298797607 -0.9380591511726379 1.2290705442428589 0.3439401686191559 0.39629048109054565 0.1714465320110321 -1.0689998865127563 -1.0191473960876465 2.2185044288635254 0.24808233976364136 0.14680057764053345 -0.16969028115272522 -0.5737779140472412 -0.9119036793708801 -1.8505527973175049 1.0796972513198853 0.33459386229515076 1.0183385610580444 -0.4587377905845642 1.0186656713485718 -1.5511493682861328 -0.991547703742981 0.12962059676647186 0.5211759209632874 0.7515693306922913 1.030214548110962 0.4282416105270386 -0.0027940981090068817 -0.9235209226608276 -1.2403508424758911 0.7465239763259888 -1.8090709447860718 0.17698507010936737 0.0172368623316288 0.6925179958343506 0.09139842540025711 0.2733316719532013 0.0655319020152092 1.4769411087036133 -0.3735056221485138 0.12823067605495453 -0.6659584045410156 -1.529386281967163 2.677351474761963
enables -0.9529513716697693 0.9408043026924133 0.8057405352592468 0.3072226047515869 1.3680452108383179 -0.999642014503479 0.020797476172447205 -2.0308985710144043 0.5849966406822205 1.0092440843582153 -0.9029034376144409 -0.11766981333494186 0.7106101512908936 -1.4634495973587036 -0.5247467756271362 -1.5633436441421509 1.4757881164550781 0.4514756500720978 0.787529706954956 -1.4971351623535156 -0.9173169136047363 -1.4721064567565918 0.06737077981233597 0.35109084844589233 -0.8000065684318542 0.8195374011993408 -0.8285577297210693 1.5210527181625366 1.8346129655838013 0.391627699136734 0.7205936908721924 0.7046993374824524 0.477800577878952 0.7244950532913208 -0.754887044429779 1.8139578104019165 -0.13326497375965118 -0.38159632682800293 1.0425050258636475 0.182528555393219 -0.0010164347477257252 -0.8808649778366089 1.3704659938812256 0.07686639577150345 -0.12094668298959732 0.4285672605037689 -0.7374650835990906 -0.26086464524269104 -1.2726579904556274 0.026605190709233284
smart 0.04672577604651451 0.7234588265419006 1.4136523008346558 -0.052763961255550385 -0.15849661827087402 -0.8402818441390991 0.11566991358995438 -0.14130648970603943 -0.6503869891166687 0.3262001872062683 0.43379417061805725 1.3124544620513916 -2.2616117000579834 0.521984875202179 -1.1699954271316528 0.9484925866127014 1.011114239692688 0.2544487714767456 -0.2031099647283554 0.040479160845279694 0.3342275023460388 -0.9812899231910706 1.4745306968688965 -0.22176535427570343 1.504392147064209 -0.27789393067359924 -0.08723483234643936 -0.004628921393305063 0.8261018991470337 -0.2796053886413574 1.3451422452926636 1.811097502708435 0.27389949560165405 -0.15774908661842346 0.027606751769781113 0.3424147069454193 -1.1667851209640503 0.489563524723053 -0.1524592489004135 -0.23846067488193512 2.436703681945801 1.1409246921539307 -0.451086163520813 -0.6190205812454224 -0.34699490666389465 1.2696994543075562 -1.0873311758041382 1.9031860828399658 0.2751375734806061 0.5602402091026306
systems 0.525713324546814 -0.0911630243062973 1.2109864950180054 1.0246530771255493 -1.0737078189849854 -0.0860651284456253 -0.43603116273880005 0.30313342809677124 0.4007894694805145 1.2126232385635376 -1.4765251874923706 0.9796423316001892 -0.7035227417945862 -0.5043819546699524 -0.07030243426561356 0.19343803822994232 0.9505444169044495 1.9546160697937012 0.06248891353607178 0.22247456014156342 0.5183640718460083 -0.2611072063446045 -2.422639846801758 -1.6719251871109009 1.6830440759658813 -0.32701584696769714 0.8333613872528076 0.16642816364765167 0.9077465534210205 0.9116840958595276 1.866987943649292 1.5257784128189087 0.23079617321491241 -1.2234630584716797 -0.5395621657371521 1.3263769149780273 -0.11243138462305069 -0.5409767031669617 -1.2054648399353027 -1.0627280473709106 -0.7339163422584534 -0.5087692141532898 0.11656894534826279 -0.8256545662879944 -1.4800015687942505 -0.9582594633102417 -0.130910262465477 0.4426245391368866 2.1266307830810547 1.2227327823638916
deep 0.45275741815567017 -0.24938814342021942 -1.2674399614334106 1.6855186223983765 -0.7985231280326843 -0.7811906933784485 1.9971938133239746 1.3957122564315796 -0.8619821667671204 1.569977879524231 -0.43179041147232056 0.7115907073020935 -0.34008628129959106 0.9960004687309265 -0.3967883586883545 -0.6783925890922546 -0.5849260091781616 -0.6850200891494751 0.5289450287818909 -2.1485531330108643 -0.7993372678756714 -0.6093445420265198 0.2247360199689865 -0.5295533537864685 1.1341392993927002 0.3224492073059082 0.03798557445406914 -1.4951082468032837 2.0419681072235107 1.0216009616851807 0.6489107012748718 0.3927302360534668 0.40980637073516846 0.998540461063385 0.1134471520781517 1.938279390335083 2.2591350078582764 0.07957015931606293 1.5308641195297241 -0.055163826793432236 -0.35376986861228943 0.44023144245147705 1.0369384288787842 0.6189354658126831 0.7044616937637329 0.6360654234886169 -0.6491509079933167 -0.8893808126449585 0.27739495038986206 1.1887710094451904
powers 0.3892430365085602 -0.5121619701385498 0.1389738917350769 -1.1466094255447388 1.320570945739746 -0.0915088802576065 1.1068061590194702 -0.24861489236354828 0.2733726501464844 -0.43330228328704834 0.8357751965522766 -1.4092543125152588 -0.6931793689727783 0.8467415571212769 1.5816268920898438 -0.6066851019859314 0.23671390116214752 2.1288301944732666 -0.784630298614502 -1.509263515472412 -0.4093097150325775 -0.4545465111732483 -1.301108717918396 1.4936720132827759 -0.2086305022239685 -1.1843148469924927 0.12084152549505234 0.6359260082244873 -0.23980125784873962 0.3977200388908386 -0.14541245996952057 0.24482056498527527 -0.36617311835289 -1.6374001502990723 -0.3312307894229889 2.1326961517333984 -0.5667378902435303 0.3936256766319275 -2.269538640975952 0.38288047909736633 0.21790561079978943 -1.004956603050232 -0.6013612747192383 0.18063636124134064 -1.1369132995605469 1.3191802501678467 -1.0066591501235962 -0.6128331422805786 0.8777636289596558 0.745185375213623
modern 0.2140270322561264 1.779270052909851 1.4054664373397827 -1.2050138711929321 0.39106300473213196 0.720152735710144 -0.7128883600234985 -0.9483683705329895 -1.0229688882827759 1.4849530458450317 -1.061242699623108 0.45228180289268494 -0.5508096218109131 -0.2287939339876175 -0.26509976387023926 -0.2553786635398865 1.6079638004302979 0.62059086561203 1.2312474250793457 -0.03737889975309372 -0.8557369709014893 0.15861259400844574 1.3160682916641235 -0.8681785464286804 2.122478723526001 0.36531543731689453 -1.5215102434158325 -0.14249306917190552 0.09189716726541519 0.23091720044612885 0.3645419776439667 -0.87590491771698 -0.7555068731307983 0.959242045879364 -0.8239223957061768 -0.13638481497764587 -0.42379239201545715 -1.4928463697433472 -0.9209780693054199 -0.4608669579029083 1.7414442300796509 -0.05200982093811035 -0.6056016087532043 0.5857746005058289 0.7550093531608582 0.6703822612762451 1.6642297506332397 0.6549749970436096 1.9641196727752686 -1.1802195310592651
nlp -2.1488564014434814 -0.5118805170059204 0.36846914887428284 0.8976726531982422 0.38020071387290955 1.272707462310791 0.6506749987602234 0.2749950587749481 -0.0037188285496085882 0.6753619909286499 0.6028838157653809 -0.3166061043739319 0.6492042541503906 1.3414783477783203 0.8167113065719604 0.45657655596733093 -1.0905227661132812 1.6991692781448364 -2.7522337436676025 -0.22019021213054657 -0.7509047389030457 0.9619503021240234 1.7947367429733276 -0.38906431198120117 0.37866732478141785 -0.003609834238886833 -0.7187161445617676 1.0975005626678467 -2.2060632705688477 0.8374130129814148 -0.6999936699867249 0.3161676228046417 1.047598123550415 0.20920145511627197 0.6581886410713196 0.8133037090301514 -1.6034821271896362 -2.28696346282959 -1.0214760303497314 0.6766627430915833 -0.6429104208946228 -0.6623513698577881 1.9287519454956055 -0.9082533717155457 1.332254409790039 -0.46565836668014526 -0.5402076840400696 0.5393261313438416 -0.20312213897705078 -0.5839902758598328
stands -0.4985774755477905 -0.9964402318000793 -0.2586415708065033 0.9978370666503906 -0.21899007260799408 0.9133562445640564 0.08749635517597198 -1.6072895526885986 -2.013258457183838 0.03045915998518467 -0.7424309253692627 -1.9420090913772583 -1.7744989395141602 0.1978294551372528 -0.775022566318512 1.280500054359436 0.13698457181453705 1.7411010265350342 -0.40818315744400024 -0.5110105276107788 -0.47119998931884766 -1.2442291975021362 -0.02140962891280651 -0.6616321802139282 -1.2432470321655273 1.8073786497116089 -0.3642559051513672 -0.4003807008266449 -0.566469669342041 -1.2384740114212036 1.3578835725784302 -0.2061987817287445 0.2533626854419708 -0.7625052332878113 1.2062163352966309 0.2600429356098175 -0.07825469225645065 0.4195675253868103 -0.48378461599349976 1.0908095836639404 2.781076431274414 -0.25455883145332336 1.7385587692260742 -0.04320918768644333 -0.7550751566886902 0.8565136194229126 -0.6991506814956665 1.6026499271392822 -1.8445255756378174 -1.1242790222167969
for 0.9900622963905334 1.3221280574798584 -1.5675050020217896 -1.0242855548858643 2.218623638153076 -0.8639533519744873 -0.924614667892456 -0.07620257884263992 1.0389156341552734 -0.14007583260536194 -2.1064774990081787 1.2767417430877686 -1.7464946508407593 0.25711578130722046 0.6055185794830322 -1.2235766649246216 -0.7790409326553345 -1.0899975299835205 -1.5412099361419678 -0.0010084627429023385 -0.17558184266090393 0.29256871342658997 0.3929256796836853 -0.4688107967376709 0.09909980744123459 2.4047818183898926 -0.10348553210496902 -0.37006479501724243 1.482103705406189 -0.39432528614997864 -1.6603550910949707 0.7152531743049622 -0.6989316940307617 -0.1892661303281784 0.7633433938026428 1.501652717590332 -1.0061019659042358 -0.10442280024290085 0.45548632740974426 -0.6748955249786377 0.39875566959381104 -0.8258047699928284 0.11948555707931519 -1.4414653778076172 -0.5116575360298157 0.5886237621307373 0.32478511333465576 0.6546940803527832 -0.7603620290756226 0.9064763188362122
natural 1.8361961841583252 -0.4340026378631592 -0.5632193684577942 1.2189606428146362 0.5233113765716553 0.17585550248622894 -1.3153239488601685 0.6563956141471863 1.0612757205963135 0.7914899587631226 -0.6846894025802612 -0.26487165689468384 -0.4067229628562927 0.5982843041419983 0.23809929192066193 0.37145528197288513 0.5620312690734863 -0.8020341396331787 -0.2767608165740967 0.9913848638534546 -0.037314970046281815 -0.625552773475647 0.4997425079345703 0.3184485137462616 -0.4060951769351959 -0.8384045362472534 -0.10880845785140991 0.5617919564247131 1.1792798042297363 -0.6002407073974609 -0.18002568185329437 0.5184028148651123 0.25148168206214905 -0.7551289200782776 1.0414621829986572 -0.21358351409435272 1.5144976377487183 0.17986781895160675 0.19178247451782227 0.18087178468704224 -0.17063045501708984 2.310894012451172 1.3345718383789062 -0.7567199468612671 1.7591103315353394 -1.1133198738098145 -0.5551363229751587 1.3379848003387451 2.1803793907165527 1.2203302383422852
language -0.3796209990978241 -0.439113587141037 2.324457883834839 -0.2701212167739868 -0.7810946106910706 1.1600733995437622 1.3743958473205566 -0.2530112564563751 0.9596564769744873 0.6977432370185852 -0.9092580080032349 -0.1579064428806305 -0.4552834928035736 -0.08673103153705597 -0.4253063499927521 -0.6326821446418762 -0.9201940298080444 -0.11753391474485397 -1.1086186170578003 -0.10068105906248093 -0.6337597966194153 -1.6178408861160278 -1.0250014066696167 -0.37620097398757935 0.05290810763835907 0.10706327110528946 -0.29237478971481323 0.0962013453245163 -1.0952136516571045 1.877549409866333 -2.0827126502990723 -0.7134199142456055 1.2043180465698242 -0.8156142234802246 -1.5281128883361816 0.14243492484092712 -0.6946431994438171 -0.6796414256095886 1.8685661554336548 0.9994652271270752 -0.4463043212890625 0.7202513813972473 0.7002347707748413 -0.5848072171211243 -3.569397211074829 -2.124985933303833 0.33145755529403687 -0.498504102230072 1.5155361890792847 -0.23495915532112122
processing -0.4133416414260864 -1.432379126548767 2.364231586456299 1.7173599004745483 1.3837697505950928 0.8128130435943604 1.1897708177566528 0.7407988905906677 1.603405237197876 -0.553494393825531 -2.647467851638794 -0.6662663221359253 1.2576067447662354 -0.42815715074539185 2.29569935798645 1.2383931875228882 0.9425578117370605 -0.8478517532348633 -0.010415888391435146 -0.43966248631477356 0.4240480661392212 1.198946475982666 -0.06415487080812454 0.1683935672044754 0.5166705846786499 0.7326468825340271 0.4465636610984802 -0.7253908514976501 0.5984572172164917 0.7189837098121643 0.00275233737193048 0.8567887544631958 -1.1464489698410034 1.0072208642959595 -0.41808879375457764 1.410879373550415 -0.22551271319389343 -2.039515733718872 0.7895616888999939 0.5526856780052185 0.6673421263694763 -0.47227412462234497 1.101248860359192 0.598639965057373 -0.25008827447891235 0.027804922312498093 0.012369190342724323 -0.7799416184425354 -0.20234601199626923 -0.6924641728401184
word 1.4897547960281372 -2.247431516647339 -2.13314151763916 0.25787246227264404 0.8362074494361877 -0.1094500944018364 0.051123496145009995 -0.17621736228466034 -0.6212583184242249 -1.314673662185669 -0.012975328601896763 0.4424745440483093 0.559118926525116 -0.15340785682201385 1.2728679180145264 0.9400442242622375 1.7684028148651123 -0.5530099868774414 -0.6707615256309509 -2.1229615211486816 1.5921761989593506 0.2759254574775696 0.12863598763942719 0.23210951685905457 0.6089180707931519 -0.35166123509407043 -0.46757274866104126 0.3165265619754791 -0.13663162291049957 0.6738934516906738 -1.5035063028335571 1.7262945175170898 0.41892826557159424 -1.8752013444900513 0.5282859206199646 -0.6131873726844788 -1.1228816509246826 0.11127626150846481 0.445425808429718 -0.25930890440940857 -0.08848383277654648 0.6897503733634949 -0.6851508021354675 -1.0269025564193726 -1.2635197639465332 0.44111379981040955 0.004383535590022802 -1.415939211845398 -0.9232209324836731 1.5506874322891235
embeddings 0.37047988176345825 -1.6396658420562744 -0.4605526924133301 1.1757593154907227 1.7012332677841187 -1.2639501094818115 -1.0923361778259277 1.0692778825759888 0.1438787281513214 -0.29659926891326904 0.2046688348054886 0.34371495246887207 0.14074623584747314 -0.42393678426742554 0.06795838475227356 0.18630319833755493 -1.0636991262435913 -0.4292524755001068 -1.0202844142913818 -0.4298533499240875 -1.0141167640686035 -2.248464345932007 -0.7219595313072205 -1.3829292058944702 0.7582124471664429 -0.6575164198875427 -1.2857590913772583 -0.24609805643558502 0.6788272261619568 -0.941344141960144 0.250182569026947 -0.7445310950279236 -0.3911948800086975 -0.07360968738794327 -0.41849035024642944 -2.213810443878174 -1.508918285369873 -0.10474929958581924 0.6307898759841919 -0.697598397731781 0.4512302875518799 0.5894809365272522 0.8515337705612183 2.1393442153930664 -0.7031664252281189 0.14701592922210693 -1.9931071996688843 -1.2096996307373047 1.7468410730361938 -0.35081928968429565
capture 0.2102837711572647 1.0724098682403564 -0.20536954700946808 -0.8493970036506653 0.6231080889701843 1.6285189390182495 0.9498781561851501 -1.215665340423584 -0.728168785572052 -0.38567426800727844 0.48249489068984985 -1.3310922384262085 0.641937255859375 0.04209762066602707 -0.20187857747077942 0.16413186490535736 -0.226996049284935 0.13103091716766357 -1.321238398551941 0.19363491237163544 -0.9992538094520569 -0.5691925287246704 -0.6934086680412292 -1.6141986846923828 0.7364469170570374 2.052645206451416 0.7522655129432678 -1.5324474573135376 1.7373895645141602 -1.5187599658966064 -0.16804471611976624 0.49180924892425537 0.3883480727672577 1.5578148365020752 0.6507166028022766 0.6965534687042236 -0.9513846635818481 -1.3284810781478882 0.949965238571167 0.9803349375724792 0.4216221272945404 -0.9734839797019958 0.2268363982439041 -0.2822932004928589 0.709057092666626 0.08063685894012451 0.7443819642066956 -0.06628785282373428 0.03876041993498802 0.7349825501441956
meaning -2.0856454372406006 -0.6449182629585266 -1.9275778532028198 -1.306633710861206 0.9527217149734497 -2.1680028438568115 1.52229905128479 2.4885847568511963 -0.20229697227478027 0.15667082369327545 0.7172911167144775 -0.3833101689815521 0.7523099184036255 2.7560698986053467 -0.946221113204956 -0.03900916129350662 1.1745413541793823 -0.35873308777809143 0.6098777651786804 0.4570247530937195 -1.5111539363861084 2.3470306396484375 0.5539224743843079 0.5205371379852295 0.20453979074954987 0.16471068561077118 0.5497070550918579 0.10708635300397873 -0.0737336128950119 -0.29001131653785706 -1.8937898874282837 1.0383671522140503 1.2476446628570557 -1.6428393125534058 1.0997073650360107 -1.1120678186416626 -2.075026035308838 1.5855109691619873 0.272152304649353 1.1440660953521729 0.5609343647956848 -0.06877847015857697 0.9273284673690796 0.7807113528251648 -0.7738080024719238 0.39775362610816956 -0.5819352269172668 -0.9437506198883057 -0.029070641845464706 0.9003680348396301
similar -0.9997866749763489 -0.8222782611846924 -1.4020271301269531 0.028077734634280205 -0.17586074769496918 1.618882179260254 0.2401479184627533 -0.9081566333770752 -0.5303372740745544 0.4291514754295349 0.2836305499076843 -0.9718049764633179 1.028743028640747 0.8808790445327759 0.8388615846633911 0.030542638152837753 -0.7452080249786377 -0.26191195845603943 -0.47261348366737366 -1.54409921169281 0.9737117886543274 2.9268693923950195 -1.2702914476394653 0.3540949523448944 0.14453643560409546 -0.09376191347837448 1.0678043365478516 -1.0793684720993042 -0.37361758947372437 -0.5707979202270508 -0.9001287817955017 -0.27767255902290344 -1.2697012424468994 1.1860179901123047 -1.0322744846343994 0.6639717817306519 0.36512115597724915 -0.3941376209259033 2.007549524307251 1.335354208946228 -0.9003742337226868 1.2041597366333008 -0.18417198956012726 1.3740910291671753 0.21075251698493958 -1.8642325401306152 -1.1976853609085083 1.2030540704727173 0.602531909942627 0.40892717242240906
words -0.5628817677497864 -0.9413771629333496 0.02612101472914219 -0.3683616518974304 -2.3646464347839355 -0.039765674620866776 -0.5479089021682739 -0.688616156578064 -0.07286842912435532 1.4065759181976318 0.9962482452392578 -0.4523393213748932 0.35676246881484985 -0.08139711618423462 0.9949874877929688 0.4449995756149292 -0.08627064526081085 0.5518434047698975 -1.0054092407226562 -2.5300791263580322 0.5866944789886475 -1.5052627325057983 -0.8342557549476624 -1.190931797027588 -0.7526301741600037 0.25183847546577454 -0.00769288744777441 -1.5881260633468628 -0.3320147693157196 0.5894181728363037 -0.1608492136001587 -0.5505167245864868 0.6006632447242737 -0.03938855603337288 0.953036367893219 0.6765948534011841 -1.1150459051132202 -0.13297922909259796 0.7690717577934265 0.1860126405954361 1.3815383911132812 -0.14753411710262299 -0.9829036593437195 -1.1436610221862793 1.837647557258606 -0.7621016502380371 0.6506640911102295 -1.615038275718689 1.0515753030776978 -0.683377742767334
have -0.2851429879665375 -1.6427416801452637 0.11038678139448166 1.298652172088623 -1.3807215690612793 -0.13821996748447418 0.10848512500524521 -1.566823124885559 1.0342040061950684 0.6165695190429688 -0.6398329734802246 1.0276867151260376 0.7833754420280457 -2.1272358894348145 0.9733926653862 1.937355637550354 0.07238389551639557 -0.3285449743270874 0.4119097590446472 0.7305307984352112 -1.0140074491500854 0.9855501055717468 -1.4428901672363281 0.8169363737106323 1.4086333513259888 0.0673675537109375 -0.840433657169342 -0.03684167563915253 -0.5544241070747375 -0.6397024989128113 0.1517571657896042 -0.6671695709228516 -1.1119375228881836 0.8495615124702454 0.2231343686580658 0.942920982837677 -0.9559271335601807 -0.9165968298912048 1.0915840864181519 1.1871157884597778 -0.5562934875488281 0.5185728669166565 -0.2071712762117386 -0.32477274537086487 -1.261080026626587 -0.21841584146022797 -0.9712713360786438 0.5132009387016296 0.09606628865003586 0.24338237941265106
vectors -0.13932392001152039 -0.5194433331489563 -0.3931703567504883 0.0756077915430069 0.9538778066635132 0.809220016002655 0.28852981328964233 1.5866307020187378 1.2936006784439087 -0.36877843737602234 0.3583727777004242 -2.255793571472168 0.5342400670051575 -2.1805858612060547 1.0821528434753418 -0.5155748724937439 2.1324589252471924 0.9920060038566589 -1.3657201528549194 0.46219056844711304 -0.5220129489898682 -1.784875750541687 -0.10055925697088242 0.06137901172041893 0.21335624158382416 -0.2601068317890167 -1.2596348524093628 0.6946552395820618 -2.1006147861480713 0.34396296739578247 2.37731671333313 0.18622997403144836 -1.3134044408798218 0.9475477933883667 0.9255324602127075 0.22428950667381287 -0.8393409252166748 0.2829059660434723 0.8856731057167053 0.18762531876564026 0.19552026689052582 -1.7079048156738281 1.7284375429153442 -1.1672793626785278 1.3945372104644775 -1.0972506999969482 -0.3374563455581665 0.9678389430046082 -0.32809802889823914 -0.26864585280418396
